digraph Tree {
node [shape=box] ;
0 [label="X[27] <= 0.061\ngini = 0.424\nsamples = 200\nvalue = [139, 61]"] ;
1 [label="X[35] <= 0.581\ngini = 0.498\nsamples = 51\nvalue = [24, 27]"] ;
0 -> 1 [labeldistance=2.5, labelangle=45, headlabel="True"] ;
2 [label="X[32] <= 0.354\ngini = 0.461\nsamples = 36\nvalue = [13, 23]"] ;
1 -> 2 ;
3 [label="X[6] <= 0.809\ngini = 0.498\nsamples = 17\nvalue = [9, 8]"] ;
2 -> 3 ;
4 [label="X[1] <= 0.978\ngini = 0.473\nsamples = 13\nvalue = [5, 8]"] ;
3 -> 4 ;
5 [label="gini = 0.0\nsamples = 6\nvalue = [0, 6]"] ;
4 -> 5 ;
6 [label="X[37] <= 0.386\ngini = 0.408\nsamples = 7\nvalue = [5, 2]"] ;
4 -> 6 ;
7 [label="gini = 0.0\nsamples = 4\nvalue = [4, 0]"] ;
6 -> 7 ;
8 [label="X[26] <= 0.254\ngini = 0.444\nsamples = 3\nvalue = [1, 2]"] ;
6 -> 8 ;
9 [label="gini = 0.0\nsamples = 2\nvalue = [0, 2]"] ;
8 -> 9 ;
10 [label="gini = 0.0\nsamples = 1\nvalue = [1, 0]"] ;
8 -> 10 ;
11 [label="gini = 0.0\nsamples = 4\nvalue = [4, 0]"] ;
3 -> 11 ;
12 [label="X[0] <= 0.274\ngini = 0.332\nsamples = 19\nvalue = [4, 15]"] ;
2 -> 12 ;
13 [label="X[29] <= 0.717\ngini = 0.5\nsamples = 6\nvalue = [3, 3]"] ;
12 -> 13 ;
14 [label="X[18] <= 0.356\ngini = 0.375\nsamples = 4\nvalue = [3, 1]"] ;
13 -> 14 ;
15 [label="gini = 0.0\nsamples = 3\nvalue = [3, 0]"] ;
14 -> 15 ;
16 [label="gini = 0.0\nsamples = 1\nvalue = [0, 1]"] ;
14 -> 16 ;
17 [label="gini = 0.0\nsamples = 2\nvalue = [0, 2]"] ;
13 -> 17 ;
18 [label="X[19] <= 0.313\ngini = 0.142\nsamples = 13\nvalue = [1, 12]"] ;
12 -> 18 ;
19 [label="gini = 0.0\nsamples = 12\nvalue = [0, 12]"] ;
18 -> 19 ;
20 [label="gini = 0.0\nsamples = 1\nvalue = [1, 0]"] ;
18 -> 20 ;
21 [label="X[19] <= 0.865\ngini = 0.391\nsamples = 15\nvalue = [11, 4]"] ;
1 -> 21 ;
22 [label="gini = 0.0\nsamples = 9\nvalue = [9, 0]"] ;
21 -> 22 ;
23 [label="X[29] <= 0.679\ngini = 0.444\nsamples = 6\nvalue = [2, 4]"] ;
21 -> 23 ;
24 [label="X[0] <= 0.754\ngini = 0.444\nsamples = 3\nvalue = [2, 1]"] ;
23 -> 24 ;
25 [label="gini = 0.0\nsamples = 2\nvalue = [2, 0]"] ;
24 -> 25 ;
26 [label="gini = 0.0\nsamples = 1\nvalue = [0, 1]"] ;
24 -> 26 ;
27 [label="gini = 0.0\nsamples = 3\nvalue = [0, 3]"] ;
23 -> 27 ;
28 [label="X[15] <= 0.445\ngini = 0.352\nsamples = 149\nvalue = [115, 34]"] ;
0 -> 28 [labeldistance=2.5, labelangle=-45, headlabel="False"] ;
29 [label="X[11] <= 0.154\ngini = 0.381\nsamples = 133\nvalue = [99, 34]"] ;
28 -> 29 ;
30 [label="X[2] <= 0.78\ngini = 0.312\nsamples = 62\nvalue = [50, 12]"] ;
29 -> 30 ;
31 [label="X[17] <= 0.675\ngini = 0.245\nsamples = 56\nvalue = [48, 8]"] ;
30 -> 31 ;
32 [label="X[7] <= 0.885\ngini = 0.162\nsamples = 45\nvalue = [41, 4]"] ;
31 -> 32 ;
33 [label="X[20] <= 0.406\ngini = 0.067\nsamples = 29\nvalue = [28, 1]"] ;
32 -> 33 ;
34 [label="gini = 0.0\nsamples = 26\nvalue = [26, 0]"] ;
33 -> 34 ;
35 [label="X[35] <= 0.775\ngini = 0.444\nsamples = 3\nvalue = [2, 1]"] ;
33 -> 35 ;
36 [label="gini = 0.0\nsamples = 1\nvalue = [0, 1]"] ;
35 -> 36 ;
37 [label="gini = 0.0\nsamples = 2\nvalue = [2, 0]"] ;
35 -> 37 ;
38 [label="X[32] <= 0.1\ngini = 0.305\nsamples = 16\nvalue = [13, 3]"] ;
32 -> 38 ;
39 [label="X[21] <= 0.644\ngini = 0.142\nsamples = 13\nvalue = [12, 1]"] ;
38 -> 39 ;
40 [label="gini = 0.0\nsamples = 12\nvalue = [12, 0]"] ;
39 -> 40 ;
41 [label="gini = 0.0\nsamples = 1\nvalue = [0, 1]"] ;
39 -> 41 ;
42 [label="X[35] <= 0.099\ngini = 0.444\nsamples = 3\nvalue = [1, 2]"] ;
38 -> 42 ;
43 [label="gini = 0.0\nsamples = 1\nvalue = [1, 0]"] ;
42 -> 43 ;
44 [label="gini = 0.0\nsamples = 2\nvalue = [0, 2]"] ;
42 -> 44 ;
45 [label="X[9] <= 0.637\ngini = 0.463\nsamples = 11\nvalue = [7, 4]"] ;
31 -> 45 ;
46 [label="gini = 0.0\nsamples = 1\nvalue = [0, 1]"] ;
45 -> 46 ;
47 [label="X[1] <= 0.158\ngini = 0.42\nsamples = 10\nvalue = [7, 3]"] ;
45 -> 47 ;
48 [label="X[6] <= 0.066\ngini = 0.278\nsamples = 6\nvalue = [5, 1]"] ;
47 -> 48 ;
49 [label="gini = 0.0\nsamples = 5\nvalue = [5, 0]"] ;
48 -> 49 ;
50 [label="gini = 0.0\nsamples = 1\nvalue = [0, 1]"] ;
48 -> 50 ;
51 [label="X[6] <= 0.536\ngini = 0.5\nsamples = 4\nvalue = [2, 2]"] ;
47 -> 51 ;
52 [label="gini = 0.0\nsamples = 2\nvalue = [0, 2]"] ;
51 -> 52 ;
53 [label="gini = 0.0\nsamples = 2\nvalue = [2, 0]"] ;
51 -> 53 ;
54 [label="X[16] <= 0.196\ngini = 0.444\nsamples = 6\nvalue = [2, 4]"] ;
30 -> 54 ;
55 [label="gini = 0.0\nsamples = 4\nvalue = [0, 4]"] ;
54 -> 55 ;
56 [label="gini = 0.0\nsamples = 2\nvalue = [2, 0]"] ;
54 -> 56 ;
57 [label="X[36] <= 0.947\ngini = 0.428\nsamples = 71\nvalue = [49, 22]"] ;
29 -> 57 ;
58 [label="X[18] <= 0.27\ngini = 0.455\nsamples = 63\nvalue = [41, 22]"] ;
57 -> 58 ;
59 [label="X[35] <= 0.762\ngini = 0.423\nsamples = 46\nvalue = [32, 14]"] ;
58 -> 59 ;
60 [label="X[4] <= 0.394\ngini = 0.353\nsamples = 35\nvalue = [27, 8]"] ;
59 -> 60 ;
61 [label="X[13] <= 0.183\ngini = 0.302\nsamples = 27\nvalue = [22, 5]"] ;
60 -> 61 ;
62 [label="X[19] <= 0.947\ngini = 0.269\nsamples = 25\nvalue = [21, 4]"] ;
61 -> 62 ;
63 [label="X[1] <= 0.61\ngini = 0.198\nsamples = 18\nvalue = [16, 2]"] ;
62 -> 63 ;
64 [label="X[31] <= 0.846\ngini = 0.346\nsamples = 9\nvalue = [7, 2]"] ;
63 -> 64 ;
65 [label="gini = 0.0\nsamples = 4\nvalue = [4, 0]"] ;
64 -> 65 ;
66 [label="X[5] <= 0.438\ngini = 0.48\nsamples = 5\nvalue = [3, 2]"] ;
64 -> 66 ;
67 [label="gini = 0.0\nsamples = 1\nvalue = [0, 1]"] ;
66 -> 67 ;
68 [label="X[17] <= 0.511\ngini = 0.375\nsamples = 4\nvalue = [3, 1]"] ;
66 -> 68 ;
69 [label="gini = 0.0\nsamples = 2\nvalue = [2, 0]"] ;
68 -> 69 ;
70 [label="X[33] <= 0.533\ngini = 0.5\nsamples = 2\nvalue = [1, 1]"] ;
68 -> 70 ;
71 [label="gini = 0.0\nsamples = 1\nvalue = [0, 1]"] ;
70 -> 71 ;
72 [label="gini = 0.0\nsamples = 1\nvalue = [1, 0]"] ;
70 -> 72 ;
73 [label="gini = 0.0\nsamples = 9\nvalue = [9, 0]"] ;
63 -> 73 ;
74 [label="X[2] <= 0.334\ngini = 0.408\nsamples = 7\nvalue = [5, 2]"] ;
62 -> 74 ;
75 [label="X[1] <= 0.295\ngini = 0.32\nsamples = 5\nvalue = [4, 1]"] ;
74 -> 75 ;
76 [label="gini = 0.0\nsamples = 3\nvalue = [3, 0]"] ;
75 -> 76 ;
77 [label="gini = 0.5\nsamples = 2\nvalue = [1, 1]"] ;
75 -> 77 ;
78 [label="X[34] <= 0.849\ngini = 0.5\nsamples = 2\nvalue = [1, 1]"] ;
74 -> 78 ;
79 [label="gini = 0.0\nsamples = 1\nvalue = [1, 0]"] ;
78 -> 79 ;
80 [label="gini = 0.0\nsamples = 1\nvalue = [0, 1]"] ;
78 -> 80 ;
81 [label="X[2] <= 0.046\ngini = 0.5\nsamples = 2\nvalue = [1, 1]"] ;
61 -> 81 ;
82 [label="gini = 0.0\nsamples = 1\nvalue = [1, 0]"] ;
81 -> 82 ;
83 [label="gini = 0.0\nsamples = 1\nvalue = [0, 1]"] ;
81 -> 83 ;
84 [label="X[14] <= 0.227\ngini = 0.469\nsamples = 8\nvalue = [5, 3]"] ;
60 -> 84 ;
85 [label="X[20] <= 0.037\ngini = 0.408\nsamples = 7\nvalue = [5, 2]"] ;
84 -> 85 ;
86 [label="X[1] <= 0.04\ngini = 0.278\nsamples = 6\nvalue = [5, 1]"] ;
85 -> 86 ;
87 [label="gini = 0.0\nsamples = 4\nvalue = [4, 0]"] ;
86 -> 87 ;
88 [label="X[31] <= 0.127\ngini = 0.5\nsamples = 2\nvalue = [1, 1]"] ;
86 -> 88 ;
89 [label="gini = 0.0\nsamples = 1\nvalue = [0, 1]"] ;
88 -> 89 ;
90 [label="gini = 0.0\nsamples = 1\nvalue = [1, 0]"] ;
88 -> 90 ;
91 [label="gini = 0.0\nsamples = 1\nvalue = [0, 1]"] ;
85 -> 91 ;
92 [label="gini = 0.0\nsamples = 1\nvalue = [0, 1]"] ;
84 -> 92 ;
93 [label="X[4] <= 0.636\ngini = 0.496\nsamples = 11\nvalue = [5, 6]"] ;
59 -> 93 ;
94 [label="X[16] <= 0.991\ngini = 0.469\nsamples = 8\nvalue = [5, 3]"] ;
93 -> 94 ;
95 [label="X[30] <= 0.759\ngini = 0.278\nsamples = 6\nvalue = [5, 1]"] ;
94 -> 95 ;
96 [label="gini = 0.0\nsamples = 5\nvalue = [5, 0]"] ;
95 -> 96 ;
97 [label="gini = 0.0\nsamples = 1\nvalue = [0, 1]"] ;
95 -> 97 ;
98 [label="gini = 0.0\nsamples = 2\nvalue = [0, 2]"] ;
94 -> 98 ;
99 [label="gini = 0.0\nsamples = 3\nvalue = [0, 3]"] ;
93 -> 99 ;
100 [label="X[37] <= 0.498\ngini = 0.498\nsamples = 17\nvalue = [9, 8]"] ;
58 -> 100 ;
101 [label="X[4] <= 0.18\ngini = 0.459\nsamples = 14\nvalue = [9, 5]"] ;
100 -> 101 ;
102 [label="X[34] <= 0.779\ngini = 0.486\nsamples = 12\nvalue = [7, 5]"] ;
101 -> 102 ;
103 [label="X[31] <= 0.851\ngini = 0.408\nsamples = 7\nvalue = [5, 2]"] ;
102 -> 103 ;
104 [label="X[2] <= 0.89\ngini = 0.444\nsamples = 3\nvalue = [1, 2]"] ;
103 -> 104 ;
105 [label="gini = 0.0\nsamples = 2\nvalue = [0, 2]"] ;
104 -> 105 ;
106 [label="gini = 0.0\nsamples = 1\nvalue = [1, 0]"] ;
104 -> 106 ;
107 [label="gini = 0.0\nsamples = 4\nvalue = [4, 0]"] ;
103 -> 107 ;
108 [label="X[31] <= 0.911\ngini = 0.48\nsamples = 5\nvalue = [2, 3]"] ;
102 -> 108 ;
109 [label="gini = 0.0\nsamples = 1\nvalue = [1, 0]"] ;
108 -> 109 ;
110 [label="X[1] <= 0.078\ngini = 0.375\nsamples = 4\nvalue = [1, 3]"] ;
108 -> 110 ;
111 [label="gini = 0.0\nsamples = 1\nvalue = [0, 1]"] ;
110 -> 111 ;
112 [label="gini = 0.444\nsamples = 3\nvalue = [1, 2]"] ;
110 -> 112 ;
113 [label="gini = 0.0\nsamples = 2\nvalue = [2, 0]"] ;
101 -> 113 ;
114 [label="gini = 0.0\nsamples = 3\nvalue = [0, 3]"] ;
100 -> 114 ;
115 [label="gini = 0.0\nsamples = 8\nvalue = [8, 0]"] ;
57 -> 115 ;
116 [label="gini = 0.0\nsamples = 16\nvalue = [16, 0]"] ;
28 -> 116 ;
}